{
  "layers": [
    {
      "activation": 3,
      "biases": [
        0.36884319067165316,
        2.3210339247693255,
        1.4864624610667807,
        -0.43802705622001087,
        1.7346655081464553,
        -1.5795265445307611
      ],
      "cols": 6,
      "rows": 3,
      "weights": [
        [
          0.06843917825697557,
          0.852335783372988,
          -2.7430220071621396,
          -1.653285836950595,
          -0.45584196985723957,
          2.9347907418240875
        ],
        [
          -2.1051075885179937,
          1.0983800778137822,
          3.100607425505119,
          0.7995647525953273,
          0.14206853590559898,
          0.9513925247356959
        ],
        [
          -1.6193849842035648,
          -3.488133945369285,
          -4.780476876518992,
          0.7139811557891106,
          -4.081310380485738,
          1.2166121190993755
        ]
      ]
    },
    {
      "activation": 3,
      "biases": [
        -0.10037026897172197,
        -0.0360150459279101,
        -0.2551939988229058,
        -1.2554132697612082,
        -0.12085485792168212,
        2.093973258036177
      ],
      "cols": 6,
      "rows": 6,
      "weights": [
        [
          0.35185954206696596,
          -1.604962471730244,
          -2.842165979879349,
          1.6399013809667404,
          -1.2297155456151219,
          -0.07018329871237379
        ],
        [
          -1.6161927027929428,
          2.4048154464605873,
          -2.282026825572323,
          0.0076820216396627575,
          -0.5740141955092292,
          -1.4838017215999162
        ],
        [
          0.6337671416493436,
          1.1194175751636508,
          -2.027042581833585,
          0.8452944342893137,
          1.33440166260821,
          2.9734790304154814
        ],
        [
          0.5305339811201518,
          -0.7688117064159513,
          1.93358855591699,
          0.27085037881640545,
          -0.6893535812999926,
          -3.3530259712245534
        ],
        [
          0.43671925408348455,
          1.4387041497832818,
          1.7183997532790274,
          1.0508739260348186,
          -1.9632845165664752,
          0.24285072130913615
        ],
        [
          -0.31357163397903315,
          -1.995780537862828,
          0.509411145838656,
          0.9724671649511698,
          -1.08919813959358,
          -0.6569409780222721
        ]
      ]
    },
    {
      "activation": 3,
      "biases": [
        1.229266516265192,
        0.23955596715694566,
        0.28885494621143726,
        0.6551476745318282,
        0.12342449400836017,
        0.5091120360124964,
        0.6757326698782495,
        0.879918977715421
      ],
      "cols": 8,
      "rows": 6,
      "weights": [
        [
          0.7266589780627535,
          0.02846896226549617,
          0.11416724442864318,
          -0.1646722951004508,
          -0.5747343735021678,
          -0.5176473632941648,
          -1.6709958995617231,
          0.45570035815652893
        ],
        [
          -0.009548862422525896,
          -0.07255401171564686,
          -0.6896030490946939,
          -0.4620499149180742,
          -0.3410166529367484,
          -0.46319867595661046,
          -0.586138641333771,
          -1.3280973805787133
        ],
        [
          -0.3202783718065971,
          -0.07224448525870765,
          -0.8276018305582584,
          1.2002355422378794,
          0.5418487509626615,
          1.3225958278562435,
          0.26181957366404573,
          2.8917017071016913
        ],
        [
          0.2932098135418721,
          -0.5854703828140455,
          -0.6787228738494456,
          0.2560808685594739,
          0.3968004912075781,
          0.3551310470370828,
          2.1648256679416935,
          -0.9701786271901354
        ],
        [
          0.4288109472194223,
          -0.10452603413671158,
          -0.13128061969235041,
          0.09413117125072606,
          0.4660650331494585,
          0.22481780021327566,
          0.8745335385565344,
          -1.1370578970606875
        ],
        [
          -0.11516559049093378,
          0.021837127084789087,
          -0.004215271535813527,
          1.4962783288077095,
          0.7093422670416865,
          1.6577629794016324,
          0.027905988290743533,
          3.2152403565731347
        ]
      ]
    }
  ]
}
